<?xml version="1.0"?>
<opencv_storage>
<stage8>
  <maxWeakCount>5</maxWeakCount>
  <stageThreshold>-4.6861723065376282e-01</stageThreshold>
  <weakClassifiers>
    <_>
      <internalNodes>
        0 -1 3660 -5.5439829826354980e-01</internalNodes>
      <leafValues>
        -5.5555558204650879e-01 3.3333334326744080e-01</leafValues></_>
    <_>
      <internalNodes>
        0 -1 91667 1.7993429675698280e-02</internalNodes>
      <leafValues>
        -3.0016076564788818e-01 5.1064932346343994e-01</leafValues></_>
    <_>
      <internalNodes>
        0 -1 2158 -7.6499884016811848e-04</internalNodes>
      <leafValues>
        -5.7788133621215820e-01 2.4695223569869995e-01</leafValues></_>
    <_>
      <internalNodes>
        0 -1 119899 1.2573170242831111e-03</internalNodes>
      <leafValues>
        -2.6927435398101807e-01 5.4241359233856201e-01</leafValues></_>
    <_>
      <internalNodes>
        0 -1 109186 -6.5238862589467317e-05</internalNodes>
      <leafValues>
        -3.8019046187400818e-01 4.0942120552062988e-01</leafValues></_></weakClassifiers></stage8>
</opencv_storage>
