<?xml version="1.0"?>
<opencv_storage>
<stage6>
  <maxWeakCount>8</maxWeakCount>
  <stageThreshold>-9.4296246767044067e-01</stageThreshold>
  <weakClassifiers>
    <_>
      <internalNodes>
        0 -1 18924 6.6133704967796803e-03</internalNodes>
      <leafValues>
        -4.8717948794364929e-01 3.3333334326744080e-01</leafValues></_>
    <_>
      <internalNodes>
        0 -1 125210 -2.6532035320997238e-02</internalNodes>
      <leafValues>
        1.6762919723987579e-01 -7.1735841035842896e-01</leafValues></_>
    <_>
      <internalNodes>
        0 -1 58515 7.0445140590891242e-04</internalNodes>
      <leafValues>
        -2.5445911288261414e-01 5.4426229000091553e-01</leafValues></_>
    <_>
      <internalNodes>
        0 -1 114132 1.1994658969342709e-02</internalNodes>
      <leafValues>
        -1.3878169655799866e-01 8.3242356777191162e-01</leafValues></_>
    <_>
      <internalNodes>
        0 -1 160728 -1.9333154195919633e-03</internalNodes>
      <leafValues>
        -5.8646368980407715e-01 2.4226741492748260e-01</leafValues></_>
    <_>
      <internalNodes>
        0 -1 11894 -2.2827559150755405e-03</internalNodes>
      <leafValues>
        -1. 1.3603423535823822e-01</leafValues></_>
    <_>
      <internalNodes>
        0 -1 143504 1.2261762749403715e-03</internalNodes>
      <leafValues>
        -2.4909336864948273e-01 6.3757330179214478e-01</leafValues></_>
    <_>
      <internalNodes>
        0 -1 131552 1.3844597851857543e-03</internalNodes>
      <leafValues>
        -2.8974279761314392e-01 4.6935147047042847e-01</leafValues></_></weakClassifiers></stage6>
</opencv_storage>
